digraph Tree {
node [shape=box, style="rounded", color="black", fontname=helvetica] ;
edge [fontname=helvetica] ;
0 [label="hotels_other_lodgings <= -0.25\nmse = 2.53\nsamples = 2347\nvalue = 2.22"] ;
1 [label="theatres <= -1.16\nmse = 1.16\nsamples = 1507\nvalue = 1.57"] ;
0 -> 1 [labeldistance=2.5, labelangle=45, headlabel="True"] ;
2 [label="pubs_bars <= 0.08\nmse = 3.13\nsamples = 102\nvalue = 3.33"] ;
1 -> 2 ;
3 [label="cafes <= 3.39\nmse = 3.0\nsamples = 62\nvalue = 3.96"] ;
2 -> 3 ;
4 [label="(...)"] ;
3 -> 4 ;
45 [label="(...)"] ;
3 -> 45 ;
54 [label="art_galleries <= -0.74\nmse = 2.13\nsamples = 40\nvalue = 2.52"] ;
2 -> 54 ;
55 [label="(...)"] ;
54 -> 55 ;
66 [label="(...)"] ;
54 -> 66 ;
109 [label="hotels_other_lodgings <= -0.71\nmse = 0.75\nsamples = 1405\nvalue = 1.44"] ;
1 -> 109 ;
110 [label="zoo <= 1.22\nmse = 0.39\nsamples = 498\nvalue = 1.01"] ;
109 -> 110 ;
111 [label="(...)"] ;
110 -> 111 ;
586 [label="(...)"] ;
110 -> 586 ;
659 [label="burger_pizza_shops <= 0.27\nmse = 0.78\nsamples = 907\nvalue = 1.67"] ;
109 -> 659 ;
660 [label="(...)"] ;
659 -> 660 ;
1711 [label="(...)"] ;
659 -> 1711 ;
1836 [label="museums <= -0.87\nmse = 2.92\nsamples = 840\nvalue = 3.32"] ;
0 -> 1836 [labeldistance=2.5, labelangle=-45, headlabel="False"] ;
1837 [label="burger_pizza_shops <= 0.29\nmse = 1.24\nsamples = 218\nvalue = 4.64"] ;
1836 -> 1837 ;
1838 [label="churches <= 1.02\nmse = 3.36\nsamples = 28\nvalue = 2.84"] ;
1837 -> 1838 ;
1839 [label="(...)"] ;
1838 -> 1839 ;
1876 [label="(...)"] ;
1838 -> 1876 ;
1877 [label="bakeries <= -0.59\nmse = 0.43\nsamples = 190\nvalue = 4.89"] ;
1837 -> 1877 ;
1878 [label="(...)"] ;
1877 -> 1878 ;
1885 [label="(...)"] ;
1877 -> 1885 ;
1892 [label="art_galleries <= 0.82\nmse = 2.63\nsamples = 622\nvalue = 2.8"] ;
1836 -> 1892 ;
1893 [label="zoo <= 0.62\nmse = 2.28\nsamples = 397\nvalue = 2.23"] ;
1892 -> 1893 ;
1894 [label="(...)"] ;
1893 -> 1894 ;
2373 [label="(...)"] ;
1893 -> 2373 ;
2416 [label="hotels_other_lodgings <= 0.05\nmse = 1.6\nsamples = 225\nvalue = 3.83"] ;
1892 -> 2416 ;
2417 [label="(...)"] ;
2416 -> 2417 ;
2538 [label="(...)"] ;
2416 -> 2538 ;
}